{
    "settings": {
        "batch_size": 1,
        "loss_function": "multiclass_cross_entropy",
        "output_size": 3,
        "hidden_size": 10,
        "avaible_id": 2,
        "activation_fun": "Sigmoid",
        "convolution": false,
        "input_size": 10,
        "input_shape": null,
        "kernel_size": null,
        "depth": null,
        "optimizer": {
            "optimzierType": "SGD",
            "layerType": "Dense",
            "weights_clip_range": 3
        }
    },
    "hidden_layers": {},
    "input_layers": {
        "init_0": {
            "id": "init_0",
            "act_fun": "Sigmoid",
            "is_ending": false,
            "is_starting": true,
            "input_layers_ids": [],
            "output_layers_ids": [
                "1"
            ],
            "optimizer": {
                "optimzierType": "SGD",
                "layerType": "Dense",
                "weights_clip_range": 3
            },
            "reshapers": {},
            "weights": {
                "W": [
                    [
                        -0.42304623949554104,
                        0.19714356748098844,
                        1.0305336479945206,
                        0.6647280258451778,
                        -0.02406330388246489,
                        0.5589572364459644,
                        0.03259862946454252,
                        0.48797811536434693,
                        -0.03490199558807155,
                        1.1230431648077224
                    ],
                    [
                        -0.7823223794974262,
                        -0.8352113398550561,
                        -0.2295333623522831,
                        1.0316486756796044,
                        -0.2953639528783789,
                        1.5990813237485286,
                        1.1293253962956011,
                        -0.3700295953618227,
                        -1.4341795810282774,
                        -0.5577138052279479
                    ],
                    [
                        -0.22222896159511235,
                        0.3972337757898691,
                        -0.19439561150033563,
                        0.4317477227568087,
                        -0.9037054649991365,
                        1.0902000590730927,
                        0.4995406201032371,
                        -0.8845621213468668,
                        0.06560726917885017,
                        -1.366967181468358
                    ],
                    [
                        -0.35896675721025806,
                        -0.2516036707510708,
                        2.285805683529082,
                        -0.22081506294974737,
                        0.012949603662363546,
                        1.8568897060891958,
                        -1.8469639618934663,
                        -1.08140320573553,
                        -0.17097968991898654,
                        0.6255201051030109
                    ],
                    [
                        0.8150540414584744,
                        0.3900094140532816,
                        0.6794349368163866,
                        0.4024544669438824,
                        0.09892141757330673,
                        0.5861579001560918,
                        -1.269990495230827,
                        -0.8053984145636252,
                        0.3172339486857647,
                        -1.0852552126799264
                    ],
                    [
                        -0.3927003534597398,
                        -1.5327338728474966,
                        0.8806244593761802,
                        -0.9472100710713081,
                        -1.3181251001009706,
                        0.5450734688887867,
                        1.9103851842483508,
                        0.4678109153826343,
                        0.519022237474002,
                        -0.587501064626148
                    ],
                    [
                        -0.5262179805149895,
                        -2.28928392337563,
                        0.798377185865936,
                        -0.5642856741927359,
                        1.0004513331689933,
                        -0.3496324657574748,
                        -0.8850732479094614,
                        0.395017817046432,
                        1.696205803750907,
                        0.674987184380977
                    ],
                    [
                        0.7240264091594271,
                        0.17335985190506806,
                        0.9113170902893427,
                        0.7236073510542514,
                        1.3450448374171224,
                        0.09178115984034925,
                        0.0015297589290985151,
                        0.3217849833197718,
                        -0.716003004968701,
                        -1.3137924657674678
                    ],
                    [
                        -2.0544976199401845,
                        0.11408292304009113,
                        -0.46418829822526947,
                        -1.2071390404029185,
                        1.3943985134997186,
                        -0.4071412304777413,
                        1.2623276618716408,
                        -0.013432859265965654,
                        1.9747066654127015,
                        -0.9162508022170858
                    ],
                    [
                        2.4050593560705757,
                        2.6135081659019512,
                        1.4102265628937625,
                        0.08997015007411169,
                        -1.1294565069841045,
                        0.9475319390769367,
                        0.7507886657707719,
                        -0.32707441885048216,
                        0.6182881212248184,
                        0.9684707335134618
                    ]
                ],
                "B": [
                    [
                        -0.4446062843689711
                    ],
                    [
                        0.7242546521594336
                    ],
                    [
                        -2.188561692092591
                    ],
                    [
                        -1.0230404393376753
                    ],
                    [
                        0.6852308421038418
                    ],
                    [
                        0.19138595939680014
                    ],
                    [
                        -2.278794565337054
                    ],
                    [
                        0.6118218430933037
                    ],
                    [
                        1.010923183750182
                    ],
                    [
                        1.6371825966568254
                    ]
                ]
            },
            "neurons": 10,
            "input_size": 10
        }
    },
    "output_layer": {
        "init_0": {
            "id": "1",
            "act_fun": "SoftMax",
            "is_ending": true,
            "is_starting": false,
            "input_layers_ids": [
                "init_0"
            ],
            "output_layers_ids": [],
            "optimizer": {
                "optimzierType": "SGD",
                "layerType": "Dense",
                "weights_clip_range": 3
            },
            "reshapers": {},
            "weights": {
                "W": [
                    [
                        -0.23014224527375324,
                        -0.865279947035797,
                        -0.669162750090439,
                        -0.6929728282109349,
                        -0.1637663240834948,
                        -0.21455659694399687,
                        -0.33736769231084457,
                        -0.03189707081697852,
                        0.1760506505474942,
                        0.7575822537369277
                    ],
                    [
                        0.08441370043557667,
                        -0.6067323558332752,
                        1.1766806575862025,
                        1.0484620134511595,
                        0.6016403476147114,
                        -0.7019628994613522,
                        -0.5270308486269385,
                        -0.3341966698122989,
                        -1.8152064955527611,
                        0.9533465855897811
                    ],
                    [
                        -0.37616689071924725,
                        -0.866108821971735,
                        0.9129621774473587,
                        1.7242779698944006,
                        1.5603354814790906,
                        0.14044570943498383,
                        -0.3623648187235018,
                        -1.187862431781114,
                        -1.112415813002742,
                        1.0144836257361398
                    ]
                ],
                "B": [
                    [
                        -0.3085166136368785
                    ],
                    [
                        0.8033094410880496
                    ],
                    [
                        -0.29801007940920216
                    ]
                ]
            },
            "neurons": 3,
            "input_size": 10
        }
    }
}