{
    "settings": {
        "batch_size": 1,
        "loss_function": "multiclass_cross_entropy",
        "output_size": 3,
        "hidden_size": 10,
        "avaible_id": 2,
        "activation_fun": "Sigmoid",
        "convolution": false,
        "input_size": 10,
        "input_shape": null,
        "kernel_size": null,
        "depth": null,
        "optimizer": {
            "optimzierType": "SGD",
            "layerType": "Dense",
            "weights_clip_range": 3
        }
    },
    "hidden_layers": {},
    "input_layers": {
        "init_0": {
            "id": "init_0",
            "act_fun": "Sigmoid",
            "is_ending": false,
            "is_starting": true,
            "input_layers_ids": [],
            "output_layers_ids": [
                "1"
            ],
            "optimizer": {
                "optimzierType": "SGD",
                "layerType": "Dense",
                "weights_clip_range": 3
            },
            "reshapers": {},
            "weights": {
                "W": [
                    [
                        1.0471800677880871,
                        -0.8810106659473753,
                        1.0999071860376715,
                        -1.3683857562996542,
                        1.5140048998002067,
                        -1.683424044031146,
                        0.9283859245107676,
                        0.7192721356380899,
                        -1.456628464744497,
                        0.7602592962147862
                    ],
                    [
                        0.24461052523244478,
                        0.826026013601186,
                        1.22315721072033,
                        -0.17286913616312063,
                        -1.8270198862313858,
                        1.1954155021235506,
                        -0.7261749159694946,
                        0.9214202240713876,
                        -0.4348557416099954,
                        -1.1658713530167732
                    ],
                    [
                        -0.8798913043152587,
                        -1.518995607918614,
                        -0.6602244285772568,
                        0.44935886443287637,
                        0.6007291162446063,
                        0.35666653555273276,
                        1.0796365410256303,
                        -0.6617024536202957,
                        -1.2748270690525647,
                        -0.5422167582210949
                    ],
                    [
                        0.09757494338819737,
                        -0.3040040208542067,
                        0.7704739870432737,
                        -1.3469774156026033,
                        0.8154472664013117,
                        1.269876753942861,
                        1.3900286535847712,
                        0.7242603389960497,
                        0.6724620924482901,
                        -1.6437216409169921
                    ],
                    [
                        -0.5654291986935787,
                        0.6933733274582822,
                        -0.29541365621612414,
                        0.13840594125433567,
                        1.6501023199350977,
                        -1.4648711424835665,
                        -0.629274973042605,
                        0.008834760269880539,
                        -1.042575618774172,
                        -1.4787841913485926
                    ],
                    [
                        -0.9802045735082426,
                        0.19257071210818877,
                        1.1132942946320656,
                        1.0592078614266531,
                        0.32963470502075515,
                        0.2749006231807697,
                        0.3981938394951693,
                        1.1813382629324964,
                        1.5260979958233123,
                        -0.9353120644914418
                    ],
                    [
                        -0.04977081384995161,
                        -0.3337153684172131,
                        0.5607734741068063,
                        0.717462638032496,
                        0.24765273523544704,
                        0.11068501057768244,
                        -0.7753032923466591,
                        -1.560457924858202,
                        1.0387130744799684,
                        0.8996520640588276
                    ],
                    [
                        1.524721740894843,
                        -1.4989233836509983,
                        0.9483784384377013,
                        -2.110735870009127,
                        -0.26343787901015076,
                        -0.4680860321000657,
                        -1.2510532726346477,
                        0.6047741148247213,
                        -1.118816960353451,
                        -0.2641647804364122
                    ],
                    [
                        0.6470481609178041,
                        -0.3513927353802356,
                        -0.766507300115207,
                        -0.28427703846539965,
                        0.9395961472228601,
                        -0.4739954978958014,
                        0.8983881694995751,
                        -0.7046780225105588,
                        0.6648396083317412,
                        -0.8671204236580384
                    ],
                    [
                        -1.3783634346400415,
                        -1.6642489198937649,
                        -1.9733898530497094,
                        -1.1485664263114777,
                        1.4356685753985456,
                        0.6508093549780534,
                        0.04718068834752042,
                        0.27754955097403905,
                        -0.7239408260655364,
                        0.2568438855188962
                    ]
                ],
                "B": [
                    [
                        -0.7800540968365205
                    ],
                    [
                        1.9167418500023672
                    ],
                    [
                        0.5080726073608257
                    ],
                    [
                        0.8767789324555862
                    ],
                    [
                        -0.15273534759246843
                    ],
                    [
                        -0.7993653253211496
                    ],
                    [
                        0.5024051415173438
                    ],
                    [
                        -0.4627402984182558
                    ],
                    [
                        0.7103738548071332
                    ],
                    [
                        -0.5286617090623444
                    ]
                ]
            },
            "neurons": 10,
            "input_size": 10
        }
    },
    "output_layer": {
        "init_0": {
            "id": "1",
            "act_fun": "SoftMax",
            "is_ending": true,
            "is_starting": false,
            "input_layers_ids": [
                "init_0"
            ],
            "output_layers_ids": [],
            "optimizer": {
                "optimzierType": "SGD",
                "layerType": "Dense",
                "weights_clip_range": 3
            },
            "reshapers": {},
            "weights": {
                "W": [
                    [
                        1.308135194638143,
                        -0.05336396418094643,
                        -1.126298172384484,
                        1.3843272283327195,
                        -0.5440572264062564,
                        1.3812485568033663,
                        -1.5632030720192858,
                        -0.002739479557144362,
                        -0.5156521371754436,
                        0.993141496445623
                    ],
                    [
                        -0.292657765037428,
                        -1.3060927581844077,
                        -0.7372819977921853,
                        1.2923311676015363,
                        -0.5913099568508432,
                        -0.4247392828762624,
                        0.07904102624351694,
                        1.4896824423677493,
                        0.8450960271349404,
                        -0.13011240342227062
                    ],
                    [
                        1.3408153125351412,
                        -0.11658032909214797,
                        -1.3431036588536376,
                        -0.4087496433875684,
                        -1.4127482283342068,
                        1.6497675218734915,
                        -0.8792323982237651,
                        -0.9489989404272561,
                        0.9879229463730111,
                        -0.20188736438211724
                    ]
                ],
                "B": [
                    [
                        0.40802605593348534
                    ],
                    [
                        0.011616807031921337
                    ],
                    [
                        0.2803348766333061
                    ]
                ]
            },
            "neurons": 3,
            "input_size": 10
        }
    }
}