{
    "settings": {
        "batch_size": 1,
        "loss_function": "multiclass_cross_entropy",
        "output_size": 3,
        "hidden_size": 10,
        "avaible_id": 3,
        "activation_fun": "Sigmoid",
        "convolution": false,
        "input_size": 10,
        "input_shape": null,
        "kernel_size": null,
        "depth": null,
        "optimizer": {
            "optimzierType": "SGD",
            "layerType": "Dense",
            "weights_clip_range": 3
        }
    },
    "hidden_layers": {
        "2": {
            "id": "2",
            "act_fun": "Sigmoid",
            "is_ending": false,
            "is_starting": false,
            "input_layers_ids": [
                "init_0"
            ],
            "output_layers_ids": [
                "1"
            ],
            "optimizer": {
                "optimzierType": "SGD",
                "layerType": "Dense",
                "weights_clip_range": 3
            },
            "reshapers": {},
            "weights": {
                "W": [
                    [
                        1.0,
                        0.0,
                        0.0,
                        0.0,
                        0.0,
                        0.0,
                        0.0,
                        0.0,
                        0.0,
                        0.0
                    ],
                    [
                        0.0,
                        1.0,
                        0.0,
                        0.0,
                        0.0,
                        0.0,
                        0.0,
                        0.0,
                        0.0,
                        0.0
                    ],
                    [
                        0.0,
                        0.0,
                        1.0,
                        0.0,
                        0.0,
                        0.0,
                        0.0,
                        0.0,
                        0.0,
                        0.0
                    ],
                    [
                        0.0,
                        0.0,
                        0.0,
                        1.0,
                        0.0,
                        0.0,
                        0.0,
                        0.0,
                        0.0,
                        0.0
                    ],
                    [
                        0.0,
                        0.0,
                        0.0,
                        0.0,
                        1.0,
                        0.0,
                        0.0,
                        0.0,
                        0.0,
                        0.0
                    ],
                    [
                        0.0,
                        0.0,
                        0.0,
                        0.0,
                        0.0,
                        1.0,
                        0.0,
                        0.0,
                        0.0,
                        0.0
                    ],
                    [
                        0.0,
                        0.0,
                        0.0,
                        0.0,
                        0.0,
                        0.0,
                        1.0,
                        0.0,
                        0.0,
                        0.0
                    ],
                    [
                        0.0,
                        0.0,
                        0.0,
                        0.0,
                        0.0,
                        0.0,
                        0.0,
                        1.0,
                        0.0,
                        0.0
                    ],
                    [
                        0.0,
                        0.0,
                        0.0,
                        0.0,
                        0.0,
                        0.0,
                        0.0,
                        0.0,
                        1.0,
                        0.0
                    ],
                    [
                        0.0,
                        0.0,
                        0.0,
                        0.0,
                        0.0,
                        0.0,
                        0.0,
                        0.0,
                        0.0,
                        1.0
                    ]
                ],
                "B": [
                    [
                        0.0
                    ],
                    [
                        0.0
                    ],
                    [
                        0.0
                    ],
                    [
                        0.0
                    ],
                    [
                        0.0
                    ],
                    [
                        0.0
                    ],
                    [
                        0.0
                    ],
                    [
                        0.0
                    ],
                    [
                        0.0
                    ],
                    [
                        0.0
                    ]
                ]
            },
            "neurons": 10,
            "input_size": 10
        }
    },
    "input_layers": {
        "init_0": {
            "id": "init_0",
            "act_fun": "Sigmoid",
            "is_ending": false,
            "is_starting": true,
            "input_layers_ids": [],
            "output_layers_ids": [
                "2"
            ],
            "optimizer": {
                "optimzierType": "SGD",
                "layerType": "Dense",
                "weights_clip_range": 3
            },
            "reshapers": {},
            "weights": {
                "W": [
                    [
                        -0.4271503276326592,
                        0.1938846115272073,
                        1.0296937108583337,
                        0.6634051711553652,
                        -0.023442293128079883,
                        0.5621112724337594,
                        0.028157007773501986,
                        0.4889229907410547,
                        -0.035056475916741534,
                        1.1200492462864016
                    ],
                    [
                        -0.7840586274515784,
                        -0.8381206391423386,
                        -0.2294476357751445,
                        1.0308065196620673,
                        -0.29577238567240344,
                        1.6014372408892301,
                        1.1260482394963993,
                        -0.3694301695349226,
                        -1.4334799216300536,
                        -0.5582558006798594
                    ],
                    [
                        -0.22265905582291826,
                        0.3909090687409271,
                        -0.19829806149698537,
                        0.4228325006128995,
                        -0.903278539954776,
                        1.087386572743228,
                        0.4896608502849456,
                        -0.8910275859257782,
                        0.05781275360078191,
                        -1.3643696844956184
                    ],
                    [
                        -0.34593979146097004,
                        -0.25575645467297137,
                        2.289001500356227,
                        -0.2200645706401351,
                        0.018406494927103462,
                        1.8458041735061983,
                        -1.8412378504138316,
                        -1.0914470238732592,
                        -0.19081736350534192,
                        0.6482270702523214
                    ],
                    [
                        0.8343186804582038,
                        0.396880877511118,
                        0.6772933855465628,
                        0.40375251604241313,
                        0.10869962082201788,
                        0.579018032779401,
                        -1.2590561940622937,
                        -0.8123739743462404,
                        0.3083726606104947,
                        -1.0621027122853208
                    ],
                    [
                        -0.38521695833983377,
                        -1.528170194817186,
                        0.875279741650566,
                        -0.949545311419959,
                        -1.3188043751406566,
                        0.5322682820744394,
                        1.9180074028132668,
                        0.46426357773398347,
                        0.5116121109908941,
                        -0.5860211820841174
                    ],
                    [
                        -0.5268162299702706,
                        -2.289294731272986,
                        0.7972345940125038,
                        -0.5655730868668888,
                        0.9991831526172907,
                        -0.35163980466239647,
                        -0.8853751212805268,
                        0.3935149986211071,
                        1.6947843311153818,
                        0.67368645818895
                    ],
                    [
                        0.7146178325756289,
                        0.16889648312707603,
                        0.9175259909258641,
                        0.7210673108171691,
                        1.3434431152481068,
                        0.09523564381997847,
                        -0.004466446524731181,
                        0.32705115119209105,
                        -0.7167508294715531,
                        -1.3252773350308704
                    ],
                    [
                        -2.0632824553953237,
                        0.11393826463459748,
                        -0.47742592799498124,
                        -1.2110486195626275,
                        1.3827154070992307,
                        -0.41955758136764204,
                        1.2617619607364685,
                        -0.023024774750965742,
                        1.975721431867875,
                        -0.9341903200301701
                    ],
                    [
                        2.405078563867092,
                        2.6134660895821553,
                        1.4101810998303401,
                        0.08992782596670981,
                        -1.129474315236984,
                        0.9474937835446279,
                        0.7507297169357433,
                        -0.32711962295991226,
                        0.6182463664352404,
                        0.968483812049029
                    ]
                ],
                "B": [
                    [
                        -0.4478832083495669
                    ],
                    [
                        0.7233900777432125
                    ],
                    [
                        -2.1966883638885286
                    ],
                    [
                        -1.016052495356819
                    ],
                    [
                        0.6943365296511637
                    ],
                    [
                        0.18963855326577858
                    ],
                    [
                        -2.280980499289088
                    ],
                    [
                        0.6053983574118049
                    ],
                    [
                        0.9914454253111796
                    ],
                    [
                        1.6371196677505622
                    ]
                ]
            },
            "neurons": 10,
            "input_size": 10
        }
    },
    "output_layer": {
        "init_0": {
            "id": "1",
            "act_fun": "SoftMax",
            "is_ending": true,
            "is_starting": false,
            "input_layers_ids": [
                "2"
            ],
            "output_layers_ids": [],
            "optimizer": {
                "optimzierType": "SGD",
                "layerType": "Dense",
                "weights_clip_range": 3
            },
            "reshapers": {},
            "weights": {
                "W": [
                    [
                        -0.23703040363151878,
                        -0.871524537864138,
                        -0.6623191541085665,
                        -0.7092489160417954,
                        -0.1650661992150187,
                        -0.20755315832796045,
                        -0.34360438774293306,
                        -0.03380014988580122,
                        0.19547585572603327,
                        0.7462204181102023
                    ],
                    [
                        0.09081672088362676,
                        -0.5934855197017331,
                        1.1766839943396616,
                        1.1013900664521792,
                        0.6112457776441909,
                        -0.6912047520448598,
                        -0.5070408903856705,
                        -0.33300571615535607,
                        -1.818983253542771,
                        0.9498897395918835
                    ],
                    [
                        -0.37568175280953164,
                        -0.873111067274936,
                        0.9061152447120284,
                        1.6876260047242426,
                        1.552029926581135,
                        0.12268412340245537,
                        -0.37611808153268134,
                        -1.1871503063692348,
                        -1.12806426019127,
                        1.0293023073607623
                    ]
                ],
                "B": [
                    [
                        -0.31996263364775973
                    ],
                    [
                        0.8005688300107224
                    ],
                    [
                        -0.28382344832099404
                    ]
                ]
            },
            "neurons": 3,
            "input_size": 10
        }
    }
}